digraph Tree {
node [shape=box, style="filled, rounded", color="black", fontname="helvetica"] ;
edge [fontname="helvetica"] ;
0 [label="Age <= 42.5\ngini = 0.466\nsamples = 360\nvalue = [227, 133]\nclass = Not Buy", fillcolor="#f4cbad"] ;
1 [label="EstimatedSalary <= 90500.0\ngini = 0.269\nsamples = 250\nvalue = [210, 40]\nclass = Not Buy", fillcolor="#ea995f"] ;
0 -> 1 [labeldistance=2.5, labelangle=45, headlabel="True"] ;
2 [label="Age <= 36.5\ngini = 0.055\nsamples = 214\nvalue = [208, 6]\nclass = Not Buy", fillcolor="#e6853f"] ;
1 -> 2 ;
3 [label="gini = 0.0\nsamples = 147\nvalue = [147, 0]\nclass = Not Buy", fillcolor="#e58139"] ;
2 -> 3 ;
4 [label="EstimatedSalary <= 85000.0\ngini = 0.163\nsamples = 67\nvalue = [61, 6]\nclass = Not Buy", fillcolor="#e88d4c"] ;
2 -> 4 ;
5 [label="EstimatedSalary <= 67500.0\ngini = 0.14\nsamples = 66\nvalue = [61, 5]\nclass = Not Buy", fillcolor="#e78b49"] ;
4 -> 5 ;
6 [label="gini = 0.0\nsamples = 33\nvalue = [33, 0]\nclass = Not Buy", fillcolor="#e58139"] ;
5 -> 6 ;
7 [label="EstimatedSalary <= 70500.0\ngini = 0.257\nsamples = 33\nvalue = [28, 5]\nclass = Not Buy", fillcolor="#ea985c"] ;
5 -> 7 ;
8 [label="Age <= 39.5\ngini = 0.5\nsamples = 2\nvalue = [1, 1]\nclass = Not Buy", fillcolor="#ffffff"] ;
7 -> 8 ;
9 [label="gini = 0.0\nsamples = 1\nvalue = [0, 1]\nclass = Buy", fillcolor="#399de5"] ;
8 -> 9 ;
10 [label="gini = 0.0\nsamples = 1\nvalue = [1, 0]\nclass = Not Buy", fillcolor="#e58139"] ;
8 -> 10 ;
11 [label="Age <= 41.5\ngini = 0.225\nsamples = 31\nvalue = [27, 4]\nclass = Not Buy", fillcolor="#e99456"] ;
7 -> 11 ;
12 [label="Age <= 40.5\ngini = 0.191\nsamples = 28\nvalue = [25, 3]\nclass = Not Buy", fillcolor="#e89051"] ;
11 -> 12 ;
13 [label="EstimatedSalary <= 78500.0\ngini = 0.245\nsamples = 21\nvalue = [18, 3]\nclass = Not Buy", fillcolor="#e9965a"] ;
12 -> 13 ;
14 [label="EstimatedSalary <= 77500.0\ngini = 0.291\nsamples = 17\nvalue = [14, 3]\nclass = Not Buy", fillcolor="#eb9c63"] ;
13 -> 14 ;
15 [label="Age <= 38.5\ngini = 0.219\nsamples = 16\nvalue = [14, 2]\nclass = Not Buy", fillcolor="#e99355"] ;
14 -> 15 ;
16 [label="gini = 0.0\nsamples = 7\nvalue = [7, 0]\nclass = Not Buy", fillcolor="#e58139"] ;
15 -> 16 ;
17 [label="EstimatedSalary <= 71500.0\ngini = 0.346\nsamples = 9\nvalue = [7, 2]\nclass = Not Buy", fillcolor="#eca572"] ;
15 -> 17 ;
18 [label="Age <= 39.5\ngini = 0.444\nsamples = 3\nvalue = [2, 1]\nclass = Not Buy", fillcolor="#f2c09c"] ;
17 -> 18 ;
19 [label="gini = 0.0\nsamples = 2\nvalue = [2, 0]\nclass = Not Buy", fillcolor="#e58139"] ;
18 -> 19 ;
20 [label="gini = 0.0\nsamples = 1\nvalue = [0, 1]\nclass = Buy", fillcolor="#399de5"] ;
18 -> 20 ;
21 [label="Age <= 39.5\ngini = 0.278\nsamples = 6\nvalue = [5, 1]\nclass = Not Buy", fillcolor="#ea9a61"] ;
17 -> 21 ;
22 [label="EstimatedSalary <= 74000.0\ngini = 0.444\nsamples = 3\nvalue = [2, 1]\nclass = Not Buy", fillcolor="#f2c09c"] ;
21 -> 22 ;
23 [label="gini = 0.0\nsamples = 1\nvalue = [1, 0]\nclass = Not Buy", fillcolor="#e58139"] ;
22 -> 23 ;
24 [label="EstimatedSalary <= 76000.0\ngini = 0.5\nsamples = 2\nvalue = [1, 1]\nclass = Not Buy", fillcolor="#ffffff"] ;
22 -> 24 ;
25 [label="gini = 0.0\nsamples = 1\nvalue = [0, 1]\nclass = Buy", fillcolor="#399de5"] ;
24 -> 25 ;
26 [label="gini = 0.0\nsamples = 1\nvalue = [1, 0]\nclass = Not Buy", fillcolor="#e58139"] ;
24 -> 26 ;
27 [label="gini = 0.0\nsamples = 3\nvalue = [3, 0]\nclass = Not Buy", fillcolor="#e58139"] ;
21 -> 27 ;
28 [label="gini = 0.0\nsamples = 1\nvalue = [0, 1]\nclass = Buy", fillcolor="#399de5"] ;
14 -> 28 ;
29 [label="gini = 0.0\nsamples = 4\nvalue = [4, 0]\nclass = Not Buy", fillcolor="#e58139"] ;
13 -> 29 ;
30 [label="gini = 0.0\nsamples = 7\nvalue = [7, 0]\nclass = Not Buy", fillcolor="#e58139"] ;
12 -> 30 ;
31 [label="EstimatedSalary <= 79500.0\ngini = 0.444\nsamples = 3\nvalue = [2, 1]\nclass = Not Buy", fillcolor="#f2c09c"] ;
11 -> 31 ;
32 [label="gini = 0.0\nsamples = 1\nvalue = [1, 0]\nclass = Not Buy", fillcolor="#e58139"] ;
31 -> 32 ;
33 [label="gini = 0.5\nsamples = 2\nvalue = [1, 1]\nclass = Not Buy", fillcolor="#ffffff"] ;
31 -> 33 ;
34 [label="gini = 0.0\nsamples = 1\nvalue = [0, 1]\nclass = Buy", fillcolor="#399de5"] ;
4 -> 34 ;
35 [label="Age <= 34.0\ngini = 0.105\nsamples = 36\nvalue = [2, 34]\nclass = Buy", fillcolor="#45a3e7"] ;
1 -> 35 ;
36 [label="EstimatedSalary <= 117500.0\ngini = 0.245\nsamples = 14\nvalue = [2, 12]\nclass = Buy", fillcolor="#5aade9"] ;
35 -> 36 ;
37 [label="EstimatedSalary <= 110000.0\ngini = 0.444\nsamples = 6\nvalue = [2, 4]\nclass = Buy", fillcolor="#9ccef2"] ;
36 -> 37 ;
38 [label="gini = 0.0\nsamples = 3\nvalue = [0, 3]\nclass = Buy", fillcolor="#399de5"] ;
37 -> 38 ;
39 [label="Age <= 32.5\ngini = 0.444\nsamples = 3\nvalue = [2, 1]\nclass = Not Buy", fillcolor="#f2c09c"] ;
37 -> 39 ;
40 [label="gini = 0.5\nsamples = 2\nvalue = [1, 1]\nclass = Not Buy", fillcolor="#ffffff"] ;
39 -> 40 ;
41 [label="gini = 0.0\nsamples = 1\nvalue = [1, 0]\nclass = Not Buy", fillcolor="#e58139"] ;
39 -> 41 ;
42 [label="gini = 0.0\nsamples = 8\nvalue = [0, 8]\nclass = Buy", fillcolor="#399de5"] ;
36 -> 42 ;
43 [label="gini = 0.0\nsamples = 22\nvalue = [0, 22]\nclass = Buy", fillcolor="#399de5"] ;
35 -> 43 ;
44 [label="Age <= 46.5\ngini = 0.261\nsamples = 110\nvalue = [17, 93]\nclass = Buy", fillcolor="#5dafea"] ;
0 -> 44 [labeldistance=2.5, labelangle=-45, headlabel="False"] ;
45 [label="EstimatedSalary <= 35500.0\ngini = 0.444\nsamples = 24\nvalue = [8, 16]\nclass = Buy", fillcolor="#9ccef2"] ;
44 -> 45 ;
46 [label="EstimatedSalary <= 22500.0\ngini = 0.219\nsamples = 8\nvalue = [1, 7]\nclass = Buy", fillcolor="#55abe9"] ;
45 -> 46 ;
47 [label="Age <= 45.5\ngini = 0.444\nsamples = 3\nvalue = [1, 2]\nclass = Buy", fillcolor="#9ccef2"] ;
46 -> 47 ;
48 [label="gini = 0.0\nsamples = 2\nvalue = [0, 2]\nclass = Buy", fillcolor="#399de5"] ;
47 -> 48 ;
49 [label="gini = 0.0\nsamples = 1\nvalue = [1, 0]\nclass = Not Buy", fillcolor="#e58139"] ;
47 -> 49 ;
50 [label="gini = 0.0\nsamples = 5\nvalue = [0, 5]\nclass = Buy", fillcolor="#399de5"] ;
46 -> 50 ;
51 [label="EstimatedSalary <= 104000.0\ngini = 0.492\nsamples = 16\nvalue = [7, 9]\nclass = Buy", fillcolor="#d3e9f9"] ;
45 -> 51 ;
52 [label="EstimatedSalary <= 52000.0\ngini = 0.48\nsamples = 10\nvalue = [6, 4]\nclass = Not Buy", fillcolor="#f6d5bd"] ;
51 -> 52 ;
53 [label="EstimatedSalary <= 40000.0\ngini = 0.444\nsamples = 3\nvalue = [1, 2]\nclass = Buy", fillcolor="#9ccef2"] ;
52 -> 53 ;
54 [label="gini = 0.0\nsamples = 1\nvalue = [1, 0]\nclass = Not Buy", fillcolor="#e58139"] ;
53 -> 54 ;
55 [label="gini = 0.0\nsamples = 2\nvalue = [0, 2]\nclass = Buy", fillcolor="#399de5"] ;
53 -> 55 ;
56 [label="EstimatedSalary <= 76500.0\ngini = 0.408\nsamples = 7\nvalue = [5, 2]\nclass = Not Buy", fillcolor="#efb388"] ;
52 -> 56 ;
57 [label="gini = 0.0\nsamples = 2\nvalue = [2, 0]\nclass = Not Buy", fillcolor="#e58139"] ;
56 -> 57 ;
58 [label="EstimatedSalary <= 92000.0\ngini = 0.48\nsamples = 5\nvalue = [3, 2]\nclass = Not Buy", fillcolor="#f6d5bd"] ;
56 -> 58 ;
59 [label="Age <= 45.5\ngini = 0.5\nsamples = 4\nvalue = [2, 2]\nclass = Not Buy", fillcolor="#ffffff"] ;
58 -> 59 ;
60 [label="gini = 0.0\nsamples = 1\nvalue = [1, 0]\nclass = Not Buy", fillcolor="#e58139"] ;
59 -> 60 ;
61 [label="EstimatedSalary <= 80500.0\ngini = 0.444\nsamples = 3\nvalue = [1, 2]\nclass = Buy", fillcolor="#9ccef2"] ;
59 -> 61 ;
62 [label="gini = 0.0\nsamples = 1\nvalue = [0, 1]\nclass = Buy", fillcolor="#399de5"] ;
61 -> 62 ;
63 [label="EstimatedSalary <= 85000.0\ngini = 0.5\nsamples = 2\nvalue = [1, 1]\nclass = Not Buy", fillcolor="#ffffff"] ;
61 -> 63 ;
64 [label="gini = 0.0\nsamples = 1\nvalue = [1, 0]\nclass = Not Buy", fillcolor="#e58139"] ;
63 -> 64 ;
65 [label="gini = 0.0\nsamples = 1\nvalue = [0, 1]\nclass = Buy", fillcolor="#399de5"] ;
63 -> 65 ;
66 [label="gini = 0.0\nsamples = 1\nvalue = [1, 0]\nclass = Not Buy", fillcolor="#e58139"] ;
58 -> 66 ;
67 [label="EstimatedSalary <= 132000.0\ngini = 0.278\nsamples = 6\nvalue = [1, 5]\nclass = Buy", fillcolor="#61b1ea"] ;
51 -> 67 ;
68 [label="gini = 0.0\nsamples = 4\nvalue = [0, 4]\nclass = Buy", fillcolor="#399de5"] ;
67 -> 68 ;
69 [label="EstimatedSalary <= 136000.0\ngini = 0.5\nsamples = 2\nvalue = [1, 1]\nclass = Not Buy", fillcolor="#ffffff"] ;
67 -> 69 ;
70 [label="gini = 0.0\nsamples = 1\nvalue = [1, 0]\nclass = Not Buy", fillcolor="#e58139"] ;
69 -> 70 ;
71 [label="gini = 0.0\nsamples = 1\nvalue = [0, 1]\nclass = Buy", fillcolor="#399de5"] ;
69 -> 71 ;
72 [label="EstimatedSalary <= 41500.0\ngini = 0.187\nsamples = 86\nvalue = [9, 77]\nclass = Buy", fillcolor="#50a8e8"] ;
44 -> 72 ;
73 [label="gini = 0.0\nsamples = 28\nvalue = [0, 28]\nclass = Buy", fillcolor="#399de5"] ;
72 -> 73 ;
74 [label="EstimatedSalary <= 48000.0\ngini = 0.262\nsamples = 58\nvalue = [9, 49]\nclass = Buy", fillcolor="#5dafea"] ;
72 -> 74 ;
75 [label="Age <= 54.0\ngini = 0.5\nsamples = 8\nvalue = [4, 4]\nclass = Not Buy", fillcolor="#ffffff"] ;
74 -> 75 ;
76 [label="gini = 0.0\nsamples = 3\nvalue = [3, 0]\nclass = Not Buy", fillcolor="#e58139"] ;
75 -> 76 ;
77 [label="Age <= 59.5\ngini = 0.32\nsamples = 5\nvalue = [1, 4]\nclass = Buy", fillcolor="#6ab6ec"] ;
75 -> 77 ;
78 [label="EstimatedSalary <= 44500.0\ngini = 0.5\nsamples = 2\nvalue = [1, 1]\nclass = Not Buy", fillcolor="#ffffff"] ;
77 -> 78 ;
79 [label="gini = 0.0\nsamples = 1\nvalue = [1, 0]\nclass = Not Buy", fillcolor="#e58139"] ;
78 -> 79 ;
80 [label="gini = 0.0\nsamples = 1\nvalue = [0, 1]\nclass = Buy", fillcolor="#399de5"] ;
78 -> 80 ;
81 [label="gini = 0.0\nsamples = 3\nvalue = [0, 3]\nclass = Buy", fillcolor="#399de5"] ;
77 -> 81 ;
82 [label="Age <= 52.5\ngini = 0.18\nsamples = 50\nvalue = [5, 45]\nclass = Buy", fillcolor="#4fa8e8"] ;
74 -> 82 ;
83 [label="EstimatedSalary <= 113500.0\ngini = 0.26\nsamples = 26\nvalue = [4, 22]\nclass = Buy", fillcolor="#5dafea"] ;
82 -> 83 ;
84 [label="EstimatedSalary <= 80000.0\ngini = 0.124\nsamples = 15\nvalue = [1, 14]\nclass = Buy", fillcolor="#47a4e7"] ;
83 -> 84 ;
85 [label="Age <= 48.5\ngini = 0.32\nsamples = 5\nvalue = [1, 4]\nclass = Buy", fillcolor="#6ab6ec"] ;
84 -> 85 ;
86 [label="gini = 0.0\nsamples = 4\nvalue = [0, 4]\nclass = Buy", fillcolor="#399de5"] ;
85 -> 86 ;
87 [label="gini = 0.0\nsamples = 1\nvalue = [1, 0]\nclass = Not Buy", fillcolor="#e58139"] ;
85 -> 87 ;
88 [label="gini = 0.0\nsamples = 10\nvalue = [0, 10]\nclass = Buy", fillcolor="#399de5"] ;
84 -> 88 ;
89 [label="EstimatedSalary <= 116500.0\ngini = 0.397\nsamples = 11\nvalue = [3, 8]\nclass = Buy", fillcolor="#83c2ef"] ;
83 -> 89 ;
90 [label="gini = 0.0\nsamples = 1\nvalue = [1, 0]\nclass = Not Buy", fillcolor="#e58139"] ;
89 -> 90 ;
91 [label="EstimatedSalary <= 142500.0\ngini = 0.32\nsamples = 10\nvalue = [2, 8]\nclass = Buy", fillcolor="#6ab6ec"] ;
89 -> 91 ;
92 [label="EstimatedSalary <= 132500.0\ngini = 0.408\nsamples = 7\nvalue = [2, 5]\nclass = Buy", fillcolor="#88c4ef"] ;
91 -> 92 ;
93 [label="gini = 0.0\nsamples = 2\nvalue = [0, 2]\nclass = Buy", fillcolor="#399de5"] ;
92 -> 93 ;
94 [label="Age <= 51.5\ngini = 0.48\nsamples = 5\nvalue = [2, 3]\nclass = Buy", fillcolor="#bddef6"] ;
92 -> 94 ;
95 [label="Age <= 50.0\ngini = 0.5\nsamples = 4\nvalue = [2, 2]\nclass = Not Buy", fillcolor="#ffffff"] ;
94 -> 95 ;
96 [label="Age <= 48.5\ngini = 0.444\nsamples = 3\nvalue = [1, 2]\nclass = Buy", fillcolor="#9ccef2"] ;
95 -> 96 ;
97 [label="EstimatedSalary <= 137500.0\ngini = 0.5\nsamples = 2\nvalue = [1, 1]\nclass = Not Buy", fillcolor="#ffffff"] ;
96 -> 97 ;
98 [label="gini = 0.0\nsamples = 1\nvalue = [0, 1]\nclass = Buy", fillcolor="#399de5"] ;
97 -> 98 ;
99 [label="gini = 0.0\nsamples = 1\nvalue = [1, 0]\nclass = Not Buy", fillcolor="#e58139"] ;
97 -> 99 ;
100 [label="gini = 0.0\nsamples = 1\nvalue = [0, 1]\nclass = Buy", fillcolor="#399de5"] ;
96 -> 100 ;
101 [label="gini = 0.0\nsamples = 1\nvalue = [1, 0]\nclass = Not Buy", fillcolor="#e58139"] ;
95 -> 101 ;
102 [label="gini = 0.0\nsamples = 1\nvalue = [0, 1]\nclass = Buy", fillcolor="#399de5"] ;
94 -> 102 ;
103 [label="gini = 0.0\nsamples = 3\nvalue = [0, 3]\nclass = Buy", fillcolor="#399de5"] ;
91 -> 103 ;
104 [label="Age <= 58.5\ngini = 0.08\nsamples = 24\nvalue = [1, 23]\nclass = Buy", fillcolor="#42a1e6"] ;
82 -> 104 ;
105 [label="gini = 0.0\nsamples = 16\nvalue = [0, 16]\nclass = Buy", fillcolor="#399de5"] ;
104 -> 105 ;
106 [label="EstimatedSalary <= 85500.0\ngini = 0.219\nsamples = 8\nvalue = [1, 7]\nclass = Buy", fillcolor="#55abe9"] ;
104 -> 106 ;
107 [label="EstimatedSalary <= 79500.0\ngini = 0.444\nsamples = 3\nvalue = [1, 2]\nclass = Buy", fillcolor="#9ccef2"] ;
106 -> 107 ;
108 [label="gini = 0.0\nsamples = 1\nvalue = [0, 1]\nclass = Buy", fillcolor="#399de5"] ;
107 -> 108 ;
109 [label="Age <= 59.5\ngini = 0.5\nsamples = 2\nvalue = [1, 1]\nclass = Not Buy", fillcolor="#ffffff"] ;
107 -> 109 ;
110 [label="gini = 0.0\nsamples = 1\nvalue = [1, 0]\nclass = Not Buy", fillcolor="#e58139"] ;
109 -> 110 ;
111 [label="gini = 0.0\nsamples = 1\nvalue = [0, 1]\nclass = Buy", fillcolor="#399de5"] ;
109 -> 111 ;
112 [label="gini = 0.0\nsamples = 5\nvalue = [0, 5]\nclass = Buy", fillcolor="#399de5"] ;
106 -> 112 ;
}